{"layers": [10, 1], "coefs_": [[[1.2165166188198817, 0.1952462347897811, 0.9433633998529148, 0.22522713114746704, -0.10038502399741604, -0.6592992337375423, -0.8064645258351026, 0.22938315466189815, 0.0888383198478656, -0.5781117209138954], [0.8128683811172172, -1.0570419258525279, 0.9797357730972395, -1.4430583360143663, -0.4409949471973575, 1.0677309429176411, 0.2744395368525638, 0.6404019603616609, 0.353148388436032, 0.6512854569289538], [0.5086769200905987, 0.9212949414674386, -0.8859060778529101, -0.13059742550796366, -0.11430771046788855, 0.06058302433506701, -0.9611767616968889, 1.053749483758572, 0.4839087551873964, -0.0025677648224598478], [0.22147054753488546, -0.17032219692140868, -0.6544302740911926, 0.6443955919712776, -0.776633014375869, -1.087373482110081, 1.8341272436949798, -0.606252082089319, -0.7774466400478974, 0.47906230865123606], [0.03753676597211279, 0.3012656715253839, -0.111557829427891, -0.07064304773544056, 0.5389132436607262, 0.7932106810555555, 0.8881410604916725, 0.9615554664799185, -0.8449188044724021, -0.7784756901839903], [-0.2752363143619048, -1.7435053773100408, 0.7778388252727818, -0.5240827809234189, 0.7258844541971929, -1.4420107727252351, 0.8651267329239567, -1.1846581137035557, 0.5190174796337222, 1.2933704697412225], [0.06014180593093157, -0.6204158936042107, 1.110008332052159, 0.4939162371866742, 0.7070420818465272, 0.04845955494798135, 0.33392694760641595, -1.0225377280049277, 0.7025378386253232, -1.7439633346816958], [0.8003267641607298, -0.6635074818025105, -0.3479966954637575, 0.5672965429487161, -0.19013009748275272, 0.7503415937360662, -0.5593057042265889, -0.32845623282569963, -0.6355077307642448, 0.6452577507061412], [0.8687484797380947, -0.46807959123151915, -1.3421573859310483, -0.04536885779960729, 0.8405203220888592, 0.2582586196610795, -0.9031119233805088, -0.05632490031447692, -0.42673432041480835, -0.3672543253455985]], [[1.1467186807400558, 1.1446898656959128, 0.5463155188148914, -0.2822678177318721], [-1.1199921197076217, -1.9698805949255467, 0.5437825291038971, 1.0714379863059225], [-0.8636720848520034, 0.7407919280420201, 0.21256935963016932, 0.5614180722280717], [0.3546060684498293, 0.989694620007196, -0.8347024489404107, -1.4687004412449216], [1.2639055715374439, 0.35262348991381626, -0.3787792622199525, -0.2557133280017427], [-1.2611893166507981, 0.4169963407961653, 0.9903286425469985, 1.2470899110847236], [-0.8513205989816187, -1.7478554258086447, 0.03496987414069384, -0.10445089915957993], [-0.8167681014559058, 0.758824317685823, -0.6932413258161162, -1.2453999168591607], [0.6425057648375132, 0.7988374006688957, 0.1354718367459363, 0.8493351708577961], [1.2562235739654906, -0.47118877571330603, -0.6529745431469173, -0.4651711289613013]], [[2.7787505737651657], [-1.8737999664520006], [1.547140708289927], [1.0401682220056723]]], "intercepts_": [[1.2165166188198817, 0.1952462347897811, 0.9433633998529148, 0.22522713114746704, -0.10038502399741604, -0.6592992337375423, -0.8064645258351026, 0.22938315466189815, 0.0888383198478656, -0.5781117209138954], [0.8128683811172172, -1.0570419258525279, 0.9797357730972395, -1.4430583360143663, -0.4409949471973575, 1.0677309429176411, 0.2744395368525638, 0.6404019603616609, 0.353148388436032, 0.6512854569289538], [0.5086769200905987, 0.9212949414674386, -0.8859060778529101, -0.13059742550796366, -0.11430771046788855, 0.06058302433506701, -0.9611767616968889, 1.053749483758572, 0.4839087551873964, -0.0025677648224598478], [0.22147054753488546, -0.17032219692140868, -0.6544302740911926, 0.6443955919712776, -0.776633014375869, -1.087373482110081, 1.8341272436949798, -0.606252082089319, -0.7774466400478974, 0.47906230865123606], [0.03753676597211279, 0.3012656715253839, -0.111557829427891, -0.07064304773544056, 0.5389132436607262, 0.7932106810555555, 0.8881410604916725, 0.9615554664799185, -0.8449188044724021, -0.7784756901839903], [-0.2752363143619048, -1.7435053773100408, 0.7778388252727818, -0.5240827809234189, 0.7258844541971929, -1.4420107727252351, 0.8651267329239567, -1.1846581137035557, 0.5190174796337222, 1.2933704697412225], [0.06014180593093157, -0.6204158936042107, 1.110008332052159, 0.4939162371866742, 0.7070420818465272, 0.04845955494798135, 0.33392694760641595, -1.0225377280049277, 0.7025378386253232, -1.7439633346816958], [0.8003267641607298, -0.6635074818025105, -0.3479966954637575, 0.5672965429487161, -0.19013009748275272, 0.7503415937360662, -0.5593057042265889, -0.32845623282569963, -0.6355077307642448, 0.6452577507061412], [0.8687484797380947, -0.46807959123151915, -1.3421573859310483, -0.04536885779960729, 0.8405203220888592, 0.2582586196610795, -0.9031119233805088, -0.05632490031447692, -0.42673432041480835, -0.3672543253455985]], "classes_": [1, 2], "activation": "relu", "out_activation": "logistic"}